solver_type L2R_LR
nr_class 2
label 1 -1
nr_feature 576
bias -1
w
1.463860850208611 
1.349608777878619 
-0.6433188528790152 
0.9013336576921673 
-2.142017516652502 
2.892202015022403 
-0.6421481967492479 
-0.4326275008674447 
-0.8228135161936441 
-2.105212299282059 
0.8056164774730993 
-1.017587930102276 
0.06472646960179095 
-2.104008291565424 
1.765671184390335 
2.074651612568199 
-2.333922057166284 
2.931795963845308 
0.08302762166030177 
-1.509972472220071 
1.931253638019374 
-2.114569973257006 
0.3517737565292833 
-1.901461046424386 
-3.009762470288429 
0.4421169961468964 
-3.586264413499006 
-2.491886864861285 
-2.066531856191643 
1.030943353741807 
0.5465696794313851 
-0.9697776618008742 
-2.00277494244287 
-0.9633082820160648 
1.678368625999038 
-0.9582429708149676 
1.280830823094711 
-0.8100843972872612 
1.20861573855484 
-0.7076450004069526 
2.424750452269935 
-2.077132258584216 
-1.080655080089355 
-1.25965475058967 
-2.520535495483098 
2.775388976097799 
0.7179311657446098 
-0.5012360364960604 
4.285626454705667 
3.867971015561684 
-4.851053307432502 
1.559392193830522 
1.180268321306397 
-1.295140331390339 
-0.4188171692042433 
0.3323568410068186 
1.156714599976232 
-1.542133899525065 
2.618814830295488 
-0.7310496929828663 
0.1189445532061861 
-3.118066330772947 
-5.32566551936411 
-1.38213607031889 
0.0773369960951714 
0.8419919406753489 
1.95356702058297 
-4.119524552532549 
-4.561538595183919 
-1.944656947322291 
-0.3070388034165255 
1.179869764448857 
3.470962135415284 
-1.676673293659305 
0.4214080223258962 
0.7768274725542542 
-4.62126738387586 
-4.125471368095244 
1.242692567636809 
0.2428329266835645 
-2.806317672391253 
1.899616525074756 
-0.8556482865441091 
0.9557229530297419 
4.222755224604793 
-1.06790330474546 
2.288274819054829 
1.135563491591175 
3.094954336781501 
-0.7937007122281055 
1.07142554295455 
-0.3455119566524251 
1.767167790970106 
0.7499459517064587 
1.171518981240613 
3.428241545360819 
-2.099032657945433 
-3.508631358573419 
3.432551028033499 
0.7799383662746188 
0.7166392424714813 
5.551275062453409 
1.615335295171767 
-3.165736052686036 
5.096240805035269 
2.491986824068154 
2.242141046869081 
-3.227509348072126 
-0.4174637841051609 
1.637823370984387 
-3.826492504936621 
2.526072679229316 
-1.844052002865852 
3.199879067382898 
-5.640101020469754 
-3.376765378332748 
-1.166930699771074 
-2.234784042693295 
1.649325416361962 
0.6383380039271347 
0.180152491763879 
-0.4807293080536506 
-0.7237616329790985 
4.473401537365707 
-1.465906753216273 
0.9952923927962098 
1.673611769384691 
-1.62221099900222 
0.6447241499291017 
2.070645575319547 
3.554088451347335 
-1.33428528546293 
-0.4416606060882379 
-0.5459577741604097 
3.328943423607776 
2.282355859731458 
-1.792816207313449 
2.153727874618891 
-1.705999919810011 
-1.079002615051691 
0.01771049756487091 
-0.001110889065865354 
2.841068056571578 
1.002193939409659 
1.651911236897213 
-3.640191967531918 
-2.572513889314433 
-1.520481948628227 
1.076977873252147 
1.515684208600989 
-3.006456431860187 
0.2047826339574527 
-0.4291803070252643 
2.509967915255312 
3.728890438934054 
-1.02900322492988 
1.977697061154363 
1.898219259595859 
-0.1138367963596579 
3.570101689893241 
4.447888627565812 
1.581563325859608 
3.814970959051097 
0.6583499122760041 
3.800402898381839 
3.944089572743039 
1.686626357636243 
1.696915666054305 
1.914561645283491 
-0.3033675965196259 
-0.3836382368590663 
-2.904066001645484 
-0.553789637830296 
-1.310070304613439 
1.399845143700158 
0.5012127518875914 
-1.046156937860205 
2.519199629976851 
1.77975887141272 
-4.208272030635474 
0.4281079496025073 
-4.299421292294153 
-3.761047162911012 
-1.791758360942151 
-1.412417509505409 
-3.3547702046184 
-2.619098956564274 
-0.6165038131005205 
4.682728593017202 
1.093455691736475 
-0.5757597816766378 
-4.976717505825333 
-1.533550378967995 
2.180004850354302 
4.28136893348078 
-2.55688544673859 
-0.01050537774081237 
-1.987759738864143 
-4.547765673625629 
-4.178634200127484 
-2.961051959979408 
-3.070140216671003 
-2.002944108250734 
1.999924091665433 
-3.892325387959918 
-1.566451247261477 
-0.9330540863612414 
-0.8850565700274282 
-3.343003715915474 
-3.029308273715776 
-0.689619563792662 
-0.7116363989380589 
-1.330309043035349 
-1.530040854754576 
1.35178600277099 
2.719625294905538 
-3.518214176109633 
0.764735468410717 
2.711289626114524 
0.1934203762008245 
1.566452313075881 
4.45744390958079 
0.8939844941759126 
-4.732614857727387 
-2.749225936770984 
-2.656053343877285 
9.615283362008741 
5.568917027233027 
3.213852600765505 
1.283331759552475 
2.509802906099576 
-0.5766002864509729 
-0.9544938929869469 
2.613521786206011 
2.425179415213011 
-2.062407354614122 
-8.374699024102473 
-3.344272102477955 
-2.582689794023664 
-9.1914240846189 
1.123369874327578 
-0.7030917834048067 
-4.904777070634747 
-0.1905626470953168 
-2.679165628238854 
-2.299807285636479 
3.952351626659097 
2.610423795080728 
2.061759690300505 
2.789836231069673 
0.7668206242185698 
-3.89005733166156 
-2.410282865825987 
-2.324779454105433 
-4.575882114079913 
-4.837411054964966 
-0.3480337684867992 
4.142284429985012 
7.056367926383587 
1.666961412175091 
2.090243951659968 
-0.1847836137292811 
0.7412239122789225 
-2.825987130736374 
-1.371489909253269 
-1.635914762410865 
-1.126041593423666 
2.549546285030135 
-1.424181588277 
-2.112201706394492 
-0.7184558289866032 
0.965747544049964 
-1.688125953912162 
1.387946124870969 
-0.1320771477172712 
0.00120463294326331 
2.363052094041403 
3.146725730327728 
0.5355979440101055 
1.267641171465105 
2.239670632972587 
4.787188287217877 
-4.821960711251029 
-1.589197128232417 
0.3479216213177337 
-3.107336555909428 
3.132324367492613 
4.547226543052124 
3.475888111679296 
2.771904483410326 
-2.987967410108333 
-0.49656834958895 
-2.601823570624282 
0.6285932185485028 
0.9416597840864548 
1.226733819939387 
-2.193509778231527 
2.388539299423339 
-0.2333745314296295 
-1.578683795193982 
-1.209093465556974 
1.002318950296175 
0.5890816478087123 
-2.870965928853986 
-1.264879429464287 
2.634988458094724 
-1.719425318644512 
0.002942953780377136 
1.931878534515609 
-1.451163835772313 
3.633076130338383 
-0.6189826366829759 
1.193551808072121 
-1.845506701564585 
3.159735811602926 
2.415848990857838 
-0.8638213646701891 
4.787235263945624 
-1.450969717987274 
2.950287904231887 
0.8954795556784685 
3.834181724675781 
0.8737755006954236 
-0.9901639200755978 
0.1854705987556393 
1.117768773966277 
-0.7353111598711956 
-3.511693994904003 
0.475206360284013 
0.4757310892432627 
-4.655532285517094 
-1.225944604256849 
4.61863583988394 
2.887265492046563 
5.716296295358182 
3.659023332709413 
5.681641093054077 
-0.8418675183100278 
-3.284086034511834 
2.755341487744612 
3.306405414094568 
-1.265744285011268 
-4.66528926564403 
-5.594132849925948 
1.041871803753585 
-2.652268676135979 
-7.942886272716398 
-2.315072692337728 
-3.563682971243609 
1.617037802028346 
-2.04578492114921 
2.328721694581159 
0.9321300086139727 
-5.361544396829303 
0.08566662327447083 
1.661134629954581 
-1.330958586876211 
-2.375396068355732 
-1.13721921266907 
0.7385746252056529 
-6.148052191021684 
1.39626459420028 
-0.1938394243578499 
-3.980573399028643 
-2.353077738396973 
-0.9276915500141337 
-0.05927795233018051 
-4.937395271685999 
-9.437277984775125 
0.9542440175414678 
-2.870910374498519 
0.9800126989609756 
0.1142678245975953 
0.9424519832567851 
7.614923735062005 
-4.013249919972475 
-0.6864941293322849 
-2.273396988731361 
0.1647158801002599 
-0.2472530086301572 
-0.7599986444610932 
5.379911370881176 
2.041314741537968 
2.500860905834195 
-0.4749740609724151 
3.712411029047127 
-0.9175710617198574 
-0.9221310069903887 
5.012381780004145 
3.527935431128961 
0.04919411183818648 
3.064583530529171 
3.942124913287873 
3.599134687030809 
5.245048342271368 
6.14690191246708 
3.405892710614371 
4.240552678380164 
8.788753515521647 
4.687801536087566 
-2.830227632956697 
1.792905364066961 
-0.4587857309468819 
-1.250923028719562 
-2.239190646964953 
-3.340590620929447 
-1.857239084023206 
-1.532881997279 
-2.930019185119772 
-2.600230066334355 
0.6725753271451814 
-0.2543243645343291 
0.7029303077235372 
1.107981462258919 
-0.9015398633148585 
7.100569270900836 
0.7942098231350249 
0.005079968023177135 
0.3744165908383016 
-6.777306922058373 
-2.673040338219195 
3.683370981974037 
-6.472933967249896 
1.578749073712842 
2.171767343046596 
3.085989031085314 
-0.6838379002724858 
-6.745791108055614 
-1.781077413128279 
-4.072600064746716 
-4.553160319073373 
1.379888926143539 
-0.9885600076678882 
3.204578032399569 
-1.062224508040938 
0.1495285469077709 
-1.627307942718331 
1.654097314612058 
-0.1578606501388598 
0.5876756877986176 
0.2262141904773761 
1.483704705875546 
4.501267857408157 
-0.603045289538236 
1.191310204926899 
2.344725793826148 
2.064504187817107 
1.253680491203908 
-3.303302660227242 
-0.6093728174421736 
-0.1141203130310045 
-0.3165279368487963 
0.8418182379003056 
0.1168800816733981 
-0.5682471126264292 
-0.9588528182853313 
2.14772445300797 
-0.5437826854771807 
0.5143388609562897 
-0.16450095248028 
-2.781237674165051 
-0.1404889462438517 
1.97296462112951 
-0.1821209059719655 
-1.050560495787054 
-1.112502305724862 
0.545247452542995 
-0.3017404466590754 
1.645777610795756 
-2.521383053158772 
-0.3084178600003607 
2.38664291220937 
-4.208125301193705 
-4.383888705908896 
-3.117420383269967 
5.407416716756957 
-2.455172923417563 
-1.814989854976707 
-0.8150059121544343 
-3.960596556194657 
-4.8648364794279 
2.162324658013041 
1.312054754274167 
-3.33007582840584 
-1.377775833085868 
-3.788887722029227 
0.5818865373459967 
2.022616074576809 
-0.7219239845545753 
-3.991339040391221 
-3.710491927838747 
3.929784812118843 
2.361133045849326 
-0.7436071037595338 
3.142383477610231 
-5.361594086284228 
0.3106757217159965 
-0.266783519175611 
-2.446256731246653 
2.385801431113464 
0.5146876335046848 
-0.6065079882969604 
2.038911292235023 
-5.620743777283841 
-4.890555870454673 
-2.805900902937015 
-1.776744465440731 
3.230272630498433 
0.02757669896872055 
-0.003911302454008475 
2.469944610597336 
-3.732230322314232 
0.3314248415831033 
-0.6283661677517257 
-1.862500667894522 
-1.319288600367948 
-0.936843279233467 
-1.428581594931452 
5.1849290294179 
2.149865320396737 
2.997553310640496 
1.535766423476891 
0.1171229506388994 
0.5045936498533753 
-0.0624926803232544 
-5.006763148619318 
-1.125720682713424 
-0.183807281068275 
-5.073155649700499 
-1.317536871709631 
4.799844541221868 
1.197640390029967 
-0.7898654055242176 
5.060834388126302 
-0.8025438885755328 
0.2484363532291773 
2.94614224209865 
3.974556041758516 
1.432005154053791 
1.896866921358816 
5.026428594507308 
1.423624426978377 
4.227500130749815 
4.459138582425478 
2.256939943305601 
0.354700205073014 
-4.65384595674881 
-1.664150133781389 
0.2592348040725918 
0.8645382697139705 
-0.9280062808683068 
-1.177322139328127 
1.864541003355559 
-0.4863902834852791 
2.472367802868586 
0.4534185773374769 
3.252634660389453 
1.458577568047628 
0.1738435778075488 
-1.865637351311856 
-4.127334459077208 
1.508084718965534 
0.168577306199515 
-3.105364231772325 
-2.730474860334832 
2.764329931901623 
-1.219750492092357 
1.645342631787315 
3.911547984063407 
1.703606571771148 
-3.047805651160758 
-0.5824708340696422 
4.142916137392371 
-1.165056183749384 
-2.199021423738771 
-0.8087032969411496 
